-2.76317
2.50091
-4.06557
-2.70706
-7.41045
-1.1331
-1.19755
0.395716
-2.35754
0.937681
-1.77042
-1.72774
-0.150177
0.621338
-1.37451
-0.359538
-2.06576
0.276198
0.329169
-0.935385
-0.363712
-0.487871
-1.9915
3.71155
0.805521
-2.73694
-0.97704
-2.38452
-0.739472
-0.387696
2.24616
-0.881202
-0.694098
-1.72229
-0.245011
0.546293
-0.177612
-0.965897
-1.33864
-0.913383
-0.109512
-1.4832
0.451281
-0.379266
-1.49887
0.81291
2.05788
0.22647
-1.12473
0.0215826
-1.60864
-0.95314
-0.0487061
-1.83235
-0.975485
-0.815188
1.32606
1.29019
-2.88088
0.277186
-1.43592
-1.04105
0.758544
0.0610984
-0.631886
-3.64187
-3.01465
-1.9141
-1.6129
-0.235836
0.838828
2.43066
-3.13017
0.49886
1.16293
-1.94259
-1.60452
-1.74625
-0.496816
0.346202
-0.590968
0.207728
-0.142483
-0.597153
-0.118998
-0.0307533
-0.619635
-0.0902557
-1.62028
-0.080913
0.3511
-0.30357
0.651257
-0.632392
0.0672447
-0.182332
0.423714
-1.22698
-0.464321
-0.798699
-1.6036
-1.10058
-1.55574
-0.895572
0.142519
-1.28146
1.87136
-6.82238
-2.74678
-3.99303
-1.6206
-0.365325
0.66866
-0.411108
0.599476
-0.0313978
-0.523216
0.219557
0.495325
-1.5769
-0.00527496
-2.41942
0.468894
0.0686842
-0.808726
-2.60132
1.11566
-2.60727
-3.14544
-6.40838
1.7281
0.108644
-1.19733
0.575887
-2.77575
-0.773249
-0.065349
-1.02702
-1.04701
1.81586
-1.57147
-2.40121
2.65629
-4.56156
-1.19333
-1.08259
-0.98349
-4.06097
0.469905
-7.97497
2.18897
-15.1991
0.307537
-18.2173
-1.66804
0.076144
-0.159018
-0.759517
-0.173841
-0.645669
-0.259718
-0.732521
-0.289754
-1.49446
0.127954
-1.63974
0.218571
-0.177134
-0.417127
0.0099423
-0.277671
-0.718223
-0.527259
-0.421885
-1.34652
0.507435
-3.31418
-0.654441
-19.265
-1.46865
-14.9146
-0.993869
-8.44465
0.65127
-6.8292
1.09524
-0.580788
-2.40982
-1.82657
0.620264
1.60256
1.5623
0.849824
-0.016705
-2.76618
-1.74617
0.561986
-1.58535
-1.74963
-1.02353
0.173517
2.2894
3.44737
-0.668429
-1.67197
-1.00336
-1.50765
-1.79828
-1.50655
-1.60297
1.15306
-1.24462
-0.107611
-5.12397
-2.01149
-2.37489
-1.55814
-3.06862
2.95613
1.30277
-1.41332
0.0574065
0.15626
-0.784637
0.215068
-0.544239
-0.0724364
-0.570811
-0.0439159
-0.922007
-0.190454
-1.97018
-0.645836
-0.484877
-0.336183
0.394896
-0.123214
-0.317438
-0.0799392
0.250099
-0.974377
-0.216285
-1.84628
-3.1867
-1.73892
1.14013
-3.19328
0.481554
-2.26319
0.858094
-0.172239
-0.389832
-0.155532
-1.12504
0.910679
0.547995
-1.75747
1.58481
-1.24553
-3.2213
0.864124
-1.7056
-0.714404
-1.97969
-0.840113
-3.74125
0.449162
-0.544799
-1.82279
1.15617
-3.20833
0.179416
-4.56518
-1.1029
-1.29924
-1.7535
2.18268
-0.855903
-0.863812
0.338183
-2.13406
-2.80295
0.529398
1.58727
-0.0391898
0.20306
-2.59316
-0.928225
-1.73301
-0.71896
-0.126957
-1.4497
-0.540094
0.364317
-1.24995
1.13738
-0.407117
-2.17566
-2.09115
0.0310223
-0.810659
-0.252088
2.83
-5.93593
-1.64088
-1.8987
0.0681793
-1.53409
-0.908497
0.124821
-4.58058
2.72773
-4.96287
-3.9036
-5.78697
-1.59552
0.182093
1.89111
0.771709
-1.47795
-0.0498965
0.168492
-0.532039
0.118232
-0.218464
-0.549878
-0.459575
-0.148975
-0.906535
0.0702214
1.87791
-12.1967
-8.81765
-8.59414
-7.43165
7.44553
6.31714
-9.31201
-5.86629
-5.48649
15.0856
-5.81465
-16.5053
-2.61407
-35.0413
-0.812271
-2.57631
37.5618
-3.94435
4.09652
6.28189
-4.27807
-5.17031
5.8715
-5.92379
-9.0353
6.00551
-7.20353
11.2249
-3.48039
-4.34733
